Language model created by QuickLM on Thu Oct 19 21:53:59 EDT 2017
Copyright (c) 1996-2010 Carnegie Mellon University and Alexander I. Rudnicky

The model is in standard ARPA format, designed by Doug Paul while he was at MITRE.

The code that was used to produce this language model is available in Open Source.
Please visit http://www.speech.cs.cmu.edu/tools/ for more information

The (fixed) discount mass is 0.5. The backoffs are computed using the ratio method.
This model based on a corpus of 6 sentences and 10 words

\data\
ngram 1=10
ngram 2=14
ngram 3=11

\1-grams:
-0.8846 </s> -0.3010
-0.8846 <s> -0.2403
-1.3617 AROUND -0.2403
-1.6628 GO -0.2915
-1.6628 LEFT -0.2403
-1.6628 RIGHT -0.2403
-1.6628 SPIN -0.2817
-1.6628 STOP -0.2403
-1.6628 STRAIGHT -0.2403
-1.1856 TURN -0.2615

\2-grams:
-1.0792 <s> GO 0.0000
-1.0792 <s> SPIN 0.0000
-1.0792 <s> STOP 0.0000
-0.6021 <s> TURN 0.0000
-0.3010 AROUND </s> -0.3010
-0.3010 GO STRAIGHT 0.0000
-0.3010 LEFT </s> -0.3010
-0.3010 RIGHT </s> -0.3010
-0.3010 SPIN AROUND 0.0000
-0.3010 STOP </s> -0.3010
-0.3010 STRAIGHT </s> -0.3010
-0.7782 TURN AROUND 0.0000
-0.7782 TURN LEFT 0.0000
-0.7782 TURN RIGHT 0.0000

\3-grams:
-0.3010 <s> GO STRAIGHT
-0.3010 <s> SPIN AROUND
-0.3010 <s> STOP </s>
-0.7782 <s> TURN AROUND
-0.7782 <s> TURN LEFT
-0.7782 <s> TURN RIGHT
-0.3010 GO STRAIGHT </s>
-0.3010 SPIN AROUND </s>
-0.3010 TURN AROUND </s>
-0.3010 TURN LEFT </s>
-0.3010 TURN RIGHT </s>

\end\
